<?xml version="1.0"?>
<opencv_storage>
<cascade>
  <stageType>BOOST</stageType>
  <featureType>HAAR</featureType>
  <height>24</height>
  <width>24</width>
  <stageParams>
    <boostType>GAB</boostType>
    <minHitRate>9.4999998807907104e-01</minHitRate>
    <maxFalseAlarm>5.0000000000000000e-01</maxFalseAlarm>
    <weightTrimRate>9.4999999999999996e-01</weightTrimRate>
    <maxDepth>1</maxDepth>
    <maxWeakCount>100</maxWeakCount></stageParams>
  <featureParams>
    <maxCatCount>0</maxCatCount>
    <featSize>1</featSize>
    <mode>BASIC</mode></featureParams>
  <stageNum>8</stageNum>
  <stages>
    <!-- stage 0 -->
    <_>
      <maxWeakCount>1</maxWeakCount>
      <stageThreshold>9.9261993169784546e-01</stageThreshold>
      <weakClassifiers>
        <_>
          <internalNodes>
            0 -1 1 -1.8654331564903259e-01</internalNodes>
          <leafValues>
            9.9261993169784546e-01 -1.</leafValues></_></weakClassifiers></_>
    <!-- stage 1 -->
    <_>
      <maxWeakCount>1</maxWeakCount>
      <stageThreshold>8.3448272943496704e-01</stageThreshold>
      <weakClassifiers>
        <_>
          <internalNodes>
            0 -1 0 -1.6778893768787384e-01</internalNodes>
          <leafValues>
            8.3448272943496704e-01 -9.7575759887695313e-01</leafValues></_></weakClassifiers></_>
    <!-- stage 2 -->
    <_>
      <maxWeakCount>2</maxWeakCount>
      <stageThreshold>-1.4628788828849792e-01</stageThreshold>
      <weakClassifiers>
        <_>
          <internalNodes>
            0 -1 8 -8.7567139416933060e-03</internalNodes>
          <leafValues>
            8.8549619913101196e-01 -8.7150835990905762e-01</leafValues></_>
        <_>
          <internalNodes>
            0 -1 3 -3.2842084765434265e-02</internalNodes>
          <leafValues>
            7.2522050142288208e-01 -9.4211322069168091e-01</leafValues></_></weakClassifiers></_>
    <!-- stage 3 -->
    <_>
      <maxWeakCount>2</maxWeakCount>
      <stageThreshold>-1.4881716668605804e-01</stageThreshold>
      <weakClassifiers>
        <_>
          <internalNodes>
            0 -1 12 2.1799148991703987e-02</internalNodes>
          <leafValues>
            -8.7172013521194458e-01 7.9061371088027954e-01</leafValues></_>
        <_>
          <internalNodes>
            0 -1 4 -3.6938577890396118e-01</internalNodes>
          <leafValues>
            7.2290295362472534e-01 -7.8255105018615723e-01</leafValues></_></weakClassifiers></_>
    <!-- stage 4 -->
    <_>
      <maxWeakCount>2</maxWeakCount>
      <stageThreshold>-7.0279225707054138e-02</stageThreshold>
      <weakClassifiers>
        <_>
          <internalNodes>
            0 -1 11 2.6170928031206131e-02</internalNodes>
          <leafValues>
            -6.9727045297622681e-01 9.2626726627349854e-01</leafValues></_>
        <_>
          <internalNodes>
            0 -1 6 1.4922507107257843e-02</internalNodes>
          <leafValues>
            -9.3124669790267944e-01 6.2699127197265625e-01</leafValues></_></weakClassifiers></_>
    <!-- stage 5 -->
    <_>
      <maxWeakCount>2</maxWeakCount>
      <stageThreshold>-1.6593708097934723e-01</stageThreshold>
      <weakClassifiers>
        <_>
          <internalNodes>
            0 -1 7 1.6312636435031891e-03</internalNodes>
          <leafValues>
            -7.4934726953506470e-01 8.7341773509979248e-01</leafValues></_>
        <_>
          <internalNodes>
            0 -1 10 2.8758323192596436e-01</internalNodes>
          <leafValues>
            -9.0599638223648071e-01 5.8341020345687866e-01</leafValues></_></weakClassifiers></_>
    <!-- stage 6 -->
    <_>
      <maxWeakCount>2</maxWeakCount>
      <stageThreshold>1.3697032630443573e-01</stageThreshold>
      <weakClassifiers>
        <_>
          <internalNodes>
            0 -1 13 -1.0872716084122658e-03</internalNodes>
          <leafValues>
            8.6956518888473511e-01 -7.1794873476028442e-01</leafValues></_>
        <_>
          <internalNodes>
            0 -1 9 -8.1863738596439362e-02</internalNodes>
          <leafValues>
            8.5491907596588135e-01 -6.3667571544647217e-01</leafValues></_></weakClassifiers></_>
    <!-- stage 7 -->
    <_>
      <maxWeakCount>2</maxWeakCount>
      <stageThreshold>-3.6693781614303589e-01</stageThreshold>
      <weakClassifiers>
        <_>
          <internalNodes>
            0 -1 5 -2.1061919629573822e-02</internalNodes>
          <leafValues>
            7.5609755516052246e-01 -8.9189189672470093e-01</leafValues></_>
        <_>
          <internalNodes>
            0 -1 2 -6.9162935018539429e-02</internalNodes>
          <leafValues>
            5.2495408058166504e-01 -8.7503957748413086e-01</leafValues></_></weakClassifiers></_></stages>
  <features>
    <_>
      <rects>
        <_>
          0 1 24 18 -1.</_>
        <_>
          0 7 24 6 3.</_></rects>
      <tilted>0</tilted></_>
    <_>
      <rects>
        <_>
          0 9 24 5 -1.</_>
        <_>
          8 9 8 5 3.</_></rects>
      <tilted>0</tilted></_>
    <_>
      <rects>
        <_>
          0 11 14 3 -1.</_>
        <_>
          7 11 7 3 2.</_></rects>
      <tilted>0</tilted></_>
    <_>
      <rects>
        <_>
          1 18 21 2 -1.</_>
        <_>
          8 18 7 2 3.</_></rects>
      <tilted>0</tilted></_>
    <_>
      <rects>
        <_>
          4 2 18 13 -1.</_>
        <_>
          10 2 6 13 3.</_></rects>
      <tilted>0</tilted></_>
    <_>
      <rects>
        <_>
          4 8 4 7 -1.</_>
        <_>
          6 8 2 7 2.</_></rects>
      <tilted>0</tilted></_>
    <_>
      <rects>
        <_>
          6 18 17 6 -1.</_>
        <_>
          6 21 17 3 2.</_></rects>
      <tilted>0</tilted></_>
    <_>
      <rects>
        <_>
          7 7 2 4 -1.</_>
        <_>
          8 7 1 4 2.</_></rects>
      <tilted>0</tilted></_>
    <_>
      <rects>
        <_>
          8 2 4 4 -1.</_>
        <_>
          10 2 2 4 2.</_></rects>
      <tilted>0</tilted></_>
    <_>
      <rects>
        <_>
          8 2 6 14 -1.</_>
        <_>
          10 2 2 14 3.</_></rects>
      <tilted>0</tilted></_>
    <_>
      <rects>
        <_>
          10 5 14 14 -1.</_>
        <_>
          17 5 7 14 2.</_></rects>
      <tilted>0</tilted></_>
    <_>
      <rects>
        <_>
          11 4 6 6 -1.</_>
        <_>
          13 4 2 6 3.</_></rects>
      <tilted>0</tilted></_>
    <_>
      <rects>
        <_>
          11 11 4 11 -1.</_>
        <_>
          13 11 2 11 2.</_></rects>
      <tilted>0</tilted></_>
    <_>
      <rects>
        <_>
          14 7 2 2 -1.</_>
        <_>
          15 7 1 2 2.</_></rects>
      <tilted>0</tilted></_></features></cascade>
</opencv_storage>
